network unknown {
 }
variable L_EXTENDEDPRICE {
type discrete [ 12 ] { 3, 7, 1, 4, 5, 8, 0, 2, 11, 6, 9, 10 };
}
variable L_SHIPDATE {
type discrete [ 7 ] { 1996, 1997, 1994, 1993, 1992, 1995, 1998 };
}
variable L_COMMITDATE {
type discrete [ 7 ] { 1996, 1997, 1994, 1993, 1995, 1992, 1998 };
}
variable L_RECEIPTDATE {
type discrete [ 7 ] { 1996, 1997, 1994, 1993, 1992, 1995, 1998 };
}
variable O_ORDERSTATUS {
type discrete [ 3 ] { O, F, P };
}
variable O_TOTALPRICE {
type discrete [ 12 ] { 4, 1, 5, 0, 3, 6, 7, 2, 8, 9, 10, 11 };
}
variable O_ORDERDATE {
type discrete [ 7 ] { 1996, 1993, 1995, 1994, 1992, 1998, 1997 };
}
variable PS_SUPPLYCOST {
type discrete [ 12 ] { 9, 11, 4, 10, 5, 3, 7, 2, 1, 0, 6, 8 };
}
variable P_SIZE {
type discrete [ 12 ] { 1, 0, 4, 3, 10, 9, 2, 5, 6, 7, 11, 8 };
}
variable C_ACCTBAL {
type discrete [ 12 ] { 1, 9, 4, 11, 8, 10, 0, 5, 6, 7, 2, 3 };
}
variable S_ACCTBAL {
type discrete [ 12 ] { 7, 5, 6, 0, 2, 8, 9, 4, 11, 1, 3, 10 };
}
variable L_SHIPDATE_P_SIZE {
type discrete [ 2 ] { true, false };
}
variable L_SHIPDATE_S_ACCTBAL {
type discrete [ 2 ] { true, false };
}
variable PS_SUPPLYCOST_L_EXTENDEDPRICE {
type discrete [ 2 ] { true, false };
}
variable C_ACCTBAL_S_ACCTBAL {
type discrete [ 2 ] { true, false };
}
variable C_ACCTBAL_O_ORDERDATE {
type discrete [ 2 ] { true, false };
}
variable L_COMMITDATE_O_ORDERDATE {
type discrete [ 2 ] { true, false };
}
probability ( L_EXTENDEDPRICE ) {
table 0.11737482545382007, 0.07493184387259791, 0.11762750182857903, 0.11803976328213311, 0.11730833167098877, 0.054637941352483545, 0.11958906842210254, 0.11653035441186249, 0.008112241505419244, 0.09577099541192899, 0.037934703105259655, 0.022142429682824656;
}
probability ( L_SHIPDATE | L_COMMITDATE ) {
(1996) 0.9063788288487965, 0.0479187907265393, 0.0, 0.0, 0.0, 0.045702380424664214, 0.0;
(1997) 0.043824701195219126, 0.9068075523990993, 0.0, 0.0, 0.0, 0.0, 0.049367746405681624;
(1994) 0.0, 0.0, 0.9115195554605685, 0.042829664458217565, 0.0, 0.04565078008121393, 0.0;
(1993) 0.0, 0.0, 0.04649895558986468, 0.9104985923167741, 0.04300245209336118, 0.0, 0.0;
(1995) 0.04456700618244896, 0.0, 0.04523417693368323, 0.0, 0.0, 0.9101988168838678, 0.0;
(1992) 0.0, 0.0, 0.0, 0.0539723218862122, 0.9460276781137879, 0.0, 0.0;
(1998) 0.0, 0.057245080500894455, 0.0, 0.0, 0.0, 0.0, 0.9427549194991055;
}
probability ( L_COMMITDATE | L_EXTENDEDPRICE ) {
(3) 0.15290052118740086, 0.14893496487650124, 0.15307047360072512, 0.14814185361432133, 0.15046453659641967, 0.12729435757987764, 0.11919329254475414;
(7) 0.15484958736356375, 0.14428964415653564, 0.15724554086431805, 0.14136125654450263, 0.15271985091844884, 0.13106753039311386, 0.11846658975951727;
(1) 0.14929338609383833, 0.15528547201808932, 0.15308083663086489, 0.1483889202939514, 0.15161107970604862, 0.12736009044657998, 0.11498021481062748;
(4) 0.15643307796304642, 0.15372915727805317, 0.1532785038305543, 0.14792699414150517, 0.14640603875619648, 0.12522532672374945, 0.117000901306895;
(5) 0.14680875184219477, 0.15497109171295773, 0.15576465253372634, 0.1462419226845029, 0.15003967804103843, 0.13269470581566717, 0.1134791973699127;
(8) 0.14323962516733602, 0.15845198977729097, 0.15565291468905926, 0.14883777534379944, 0.15078495801387368, 0.13253012048192772, 0.11050261652671291;
(0) 0.15079232693911593, 0.1570753405615791, 0.1607450653322213, 0.13989435640811787, 0.14334167361690298, 0.13244370308590492, 0.11570753405615791;
(2) 0.1449928673323823, 0.1567475035663338, 0.1543509272467903, 0.14830242510699002, 0.15218259629101283, 0.12924393723252497, 0.11417974322396576;
(11) 0.13934426229508196, 0.14508196721311475, 0.1598360655737705, 0.15, 0.13852459016393442, 0.13688524590163934, 0.130327868852459;
(6) 0.14670554745539124, 0.15753662431437895, 0.15948066375060752, 0.1485107269318892, 0.14941331667013816, 0.12913976254946885, 0.10921335832812608;
(9) 0.15425065731814197, 0.1486415425065732, 0.15127081507449605, 0.14443470639789657, 0.15249780893952672, 0.13496932515337423, 0.11393514460999124;
(10) 0.15435435435435435, 0.13783783783783785, 0.15435435435435435, 0.14984984984984984, 0.15105105105105104, 0.13093093093093094, 0.12162162162162163;
}
probability ( L_RECEIPTDATE | L_SHIPDATE ) {
(1996) 0.9549886469881127, 0.04501135301188727, 0.0, 0.0, 0.0, 0.0, 0.0;
(1997) 0.0, 0.9574588276191718, 0.0, 0.0, 0.0, 0.0, 0.042541172380828225;
(1994) 0.0, 0.0, 0.9601129846785929, 0.0, 0.0, 0.03988701532140717, 0.0;
(1993) 0.0, 0.0, 0.04478422147833167, 0.9552157785216683, 0.0, 0.0, 0.0;
(1992) 0.0, 0.0, 0.0, 0.046536796536796536, 0.9534632034632035, 0.0, 0.0;
(1995) 0.043877143996808934, 0.0, 0.0, 0.0, 0.0, 0.956122856003191, 0.0;
(1998) 0.0, 0.0, 0.0, 0.0, 0.0, 0.0, 1.0;
}
probability ( O_ORDERSTATUS ) {
table 0.4886933333333333, 0.4864266666666667, 0.02488;
}
probability ( O_TOTALPRICE | O_ORDERSTATUS ) {
(O) 0.14143839353923388, 0.16250136418203645, 0.11317254174397032, 0.11606460766124632, 0.15944559642038633, 0.08343337334933974, 0.04550911273600349, 0.1555167521554076, 0.016752155407617594, 0.005238459019971625, 0.0008730765033286041, 5.456728145803776e-05;
(F) 0.14741516364234417, 0.1594759059262102, 0.12016885039197413, 0.11463187325256291, 0.15629625568773642, 0.07888821884765089, 0.0433638506660819, 0.15371964256345594, 0.018803793651663833, 0.005975549586097253, 0.001151252672550847, 0.00010964311167150923;
(P) 0.19506966773847803, 0.09431939978563773, 0.15862808145766344, 0.01607717041800643, 0.16291532690246516, 0.11789924973204716, 0.06645230439442658, 0.1489817792068596, 0.030010718113612004, 0.007502679528403001, 0.0010718113612004287, 0.0010718113612004287;
}
probability ( O_ORDERDATE | O_ORDERSTATUS ) {
(O) 0.3085234093637455, 0.0, 0.19300447451707956, 0.0, 0.0, 0.18634726617919894, 0.31212484993997597;
(F) 0.0, 0.3060139246751823, 0.06255139520859603, 0.3189518118524204, 0.31248286826380134, 0.0, 0.0;
(P) 0.0, 0.0, 1.0, 0.0, 0.0, 0.0, 0.0;
}
probability ( PS_SUPPLYCOST ) {
table 0.08395, 0.08205, 0.0846, 0.08135, 0.0822, 0.084, 0.08405, 0.08255, 0.08675, 0.0816, 0.08415, 0.08275;
}
probability ( P_SIZE ) {
table 0.0836, 0.0992, 0.0822, 0.0808, 0.0788, 0.082, 0.08, 0.0766, 0.08, 0.0794, 0.097, 0.0804;
}
probability ( C_ACCTBAL ) {
table 0.07706666666666667, 0.0872, 0.09706666666666666, 0.0832, 0.07546666666666667, 0.0808, 0.0856, 0.0888, 0.07626666666666666, 0.08426666666666667, 0.08026666666666667, 0.084;
}
probability ( S_ACCTBAL ) {
table 0.096, 0.076, 0.076, 0.1, 0.088, 0.088, 0.06, 0.092, 0.108, 0.068, 0.088, 0.06;
}
probability ( L_SHIPDATE_P_SIZE | L_SHIPDATE, P_SIZE ) {
(1996,1) 0.0136, 0.012485793508833758;
(1996,0) 0.014, 0.014815692637094468;
(1996,4) 0.013, 0.012276703748279463;
(1996,3) 0.0134, 0.012067607338302668;
(1996,10) 0.0112, 0.011768916609592457;
(1996,9) 0.012, 0.012246839861957988;
(1996,2) 0.0142, 0.011948119875788787;
(1996,5) 0.0102, 0.011440347365831277;
(1996,6) 0.0116, 0.011948137164287281;
(1996,7) 0.0136, 0.011858512258210375;
(1996,11) 0.018, 0.0144870901462208;
(1996,8) 0.012, 0.012007875576006223;
(1997,1) 0.0138, 0.012792644408833093;
(1997,0) 0.0142, 0.015179803044105619;
(1997,4) 0.0106, 0.012578433263071103;
(1997,3) 0.0136, 0.012364180890889627;
(1997,10) 0.0112, 0.012058150529626502;
(1997,9) 0.0116, 0.012547821981660892;
(1997,2) 0.0106, 0.012241782311206272;
(1997,5) 0.0098, 0.011721508886953167;
(1997,6) 0.0112, 0.012241778321552772;
(1997,7) 0.0118, 0.01214996043593614;
(1997,11) 0.015, 0.01484314677270279;
(1997,8) 0.0124, 0.0123029796062212;
(1994,1) 0.0126, 0.012988882165583918;
(1994,0) 0.0156, 0.015412640552168044;
(1994,4) 0.012, 0.012771367586725093;
(1994,3) 0.0116, 0.012553851677981768;
(1994,10) 0.0126, 0.012243104216398806;
(1994,9) 0.016, 0.012740266907819056;
(1994,2) 0.0116, 0.012429555353117582;
(1994,5) 0.012, 0.011901293312675794;
(1994,6) 0.0158, 0.012429527425543091;
(1994,7) 0.0094, 0.012336347738198937;
(1994,11) 0.0148, 0.015070830978329532;
(1994,8) 0.0116, 0.012491703515549674;
(1993,1) 0.01, 0.012288475885869312;
(1993,0) 0.0156, 0.014581515935341016;
(1993,4) 0.015, 0.012082653651530365;
(1993,3) 0.0128, 0.0118768792930334;
(1993,10) 0.0106, 0.011582909654296524;
(1993,9) 0.0126, 0.012053271183397721;
(1993,2) 0.0122, 0.011759289575700351;
(1993,5) 0.0116, 0.01125952031066102;
(1993,6) 0.009, 0.011759310853852343;
(1993,7) 0.0128, 0.01167109030580694;
(1993,11) 0.0128, 0.014258151859511;
(1993,8) 0.0126, 0.011818083769424625;
(1992,1) 0.0088, 0.010786464435563772;
(1992,0) 0.013, 0.012799232656643771;
(1992,4) 0.011, 0.01060581425503195;
(1992,3) 0.0106, 0.010425181362998623;
(1992,10) 0.0106, 0.010167130574709587;
(1992,9) 0.0112, 0.010580007846318547;
(1992,2) 0.0092, 0.010321970356874505;
(1992,5) 0.01, 0.009883278697245144;
(1992,6) 0.0124, 0.010321949078722513;
(1992,7) 0.0102, 0.010244548470965297;
(1992,11) 0.0108, 0.012515391418255325;
(1992,8) 0.0106, 0.010373571205340815;
(1995,1) 0.0142, 0.012542490474702272;
(1995,0) 0.0138, 0.014882975483579251;
(1995,4) 0.0122, 0.012332460485806808;
(1995,3) 0.0112, 0.012122423847488845;
(1995,10) 0.015, 0.011822336740054127;
(1995,9) 0.0084, 0.012302479569649376;
(1995,2) 0.012, 0.012002393792099155;
(1995,5) 0.0134, 0.011492279355537972;
(1995,6) 0.0122, 0.012002392462214656;
(1995,7) 0.0146, 0.011912357951711893;
(1995,11) 0.0154, 0.014552896820911104;
(1995,8) 0.0112, 0.012062411479563;
(1998,1) 0.0106, 0.009715249120613875;
(1998,0) 0.013, 0.011528139691067831;
(1998,4) 0.0084, 0.00955256700955522;
(1998,3) 0.0076, 0.009389875589305069;
(1998,10) 0.0076, 0.009157451675321998;
(1998,9) 0.0102, 0.009529312649196417;
(1998,2) 0.0102, 0.009296888735213346;
(1998,5) 0.0096, 0.008901772071095625;
(1998,6) 0.0078, 0.009296904693827341;
(1998,7) 0.007, 0.009227182839170418;
(1998,11) 0.0102, 0.011272492004069446;
(1998,8) 0.01, 0.009343374847894461;
}
probability ( L_SHIPDATE_S_ACCTBAL | L_SHIPDATE, S_ACCTBAL ) {
(1996,7) 0.028, 0.01433767097327597;
(1996,5) 0.024, 0.011350643996568897;
(1996,6) 0.008, 0.01135075038732886;
(1996,0) 0.012, 0.014935188078915347;
(1996,2) 0.004, 0.01314300912965709;
(1996,8) 0.016, 0.013142929336587117;
(1996,9) 0.008, 0.008961107527811209;
(1996,4) 0.012, 0.01374036664915652;
(1996,11) 0.028, 0.01612990311791421;
(1996,1) 0.016, 0.010155875762190054;
(1996,3) 0.008, 0.013142982531967098;
(1996,10) 0.0, 0.00896116072319119;
(1997,7) 0.012, 0.014690143561031724;
(1997,5) 0.0, 0.01162976015533051;
(1997,6) 0.012, 0.011629680362260537;
(1997,0) 0.008, 0.015302262798475953;
(1997,2) 0.012, 0.01346595828152325;
(1997,8) 0.008, 0.01346598487921324;
(1997,9) 0.004, 0.00918136299862357;
(1997,4) 0.004, 0.014078104116657468;
(1997,11) 0.012, 0.016526421480294436;
(1997,1) 0.008, 0.010405521680442054;
(1997,3) 0.004, 0.01346601147690323;
(1997,10) 0.004, 0.00918136299862357;
(1994,7) 0.012, 0.014915479190632294;
(1994,5) 0.024, 0.011807991275957682;
(1994,6) 0.016, 0.011808044471337664;
(1994,0) 0.016, 0.01553693421726323;
(1994,2) 0.028, 0.013672409551230476;
(1994,8) 0.012, 0.013672515941990438;
(1994,9) 0.016, 0.009322117974053953;
(1994,4) 0.024, 0.014293917773241394;
(1994,11) 0.008, 0.016779950661285067;
(1994,1) 0.024, 0.010565028027315827;
(1994,3) 0.016, 0.013672489344300447;
(1994,10) 0.004, 0.009322197767123926;
(1993,7) 0.02, 0.014111111849935833;
(1993,5) 0.008, 0.0111713489683421;
(1993,6) 0.016, 0.011171295772962117;
(1993,0) 0.012, 0.014699133580248555;
(1993,2) 0.016, 0.01293520137776034;
(1993,8) 0.02, 0.012935174780070351;
(1993,9) 0.004, 0.008819501426301125;
(1993,4) 0.02, 0.013523143315003093;
(1993,11) 0.016, 0.015875044052424046;
(1993,1) 0.004, 0.009995438496166608;
(1993,3) 0.016, 0.01293520137776034;
(1993,10) 0.012, 0.008819448230921144;
(1992,7) 0.008, 0.0123863846424938;
(1992,5) 0.004, 0.009805903357293418;
(1992,6) 0.008, 0.009805876759603429;
(1992,0) 0.016, 0.012902433023691892;
(1992,2) 0.008, 0.011354181489337652;
(1992,8) 0.008, 0.011354181489337652;
(1992,9) 0.004, 0.007741497050981122;
(1992,4) 0.016, 0.011870229870535744;
(1992,11) 0.016, 0.01393463617684804;
(1992,1) 0.0, 0.008773726801827262;
(1992,3) 0.016, 0.01135412829395767;
(1992,10) 0.02, 0.00774139066022116;
(1995,7) 0.004, 0.014402941704512963;
(1995,5) 0.008, 0.01140229671053069;
(1995,6) 0.004, 0.01140232330822068;
(1995,0) 0.032, 0.015002879199941485;
(1995,2) 0.0, 0.01320272094368604;
(1995,8) 0.008, 0.013202667748306059;
(1995,9) 0.016, 0.009001748798116884;
(1995,4) 0.004, 0.013802818025254507;
(1995,11) 0.012, 0.01620325954690835;
(1995,1) 0.016, 0.010201996156633796;
(1995,3) 0.016, 0.013202614552926078;
(1995,10) 0.004, 0.009001828591186855;
(1998,7) 0.012, 0.011156268078117416;
(1998,5) 0.008, 0.0088320555359767;
(1998,6) 0.012, 0.00883202893828671;
(1998,0) 0.004, 0.011621169101463538;
(1998,2) 0.02, 0.010226519226805153;
(1998,8) 0.016, 0.010226545824495142;
(1998,9) 0.008, 0.006972664224112136;
(1998,4) 0.012, 0.010691420250151275;
(1998,11) 0.016, 0.012550784964325849;
(1998,1) 0.0, 0.0079024130754244;
(1998,3) 0.012, 0.010226572422185134;
(1998,10) 0.016, 0.006972611028732155;
}
probability ( PS_SUPPLYCOST_L_EXTENDEDPRICE | PS_SUPPLYCOST, L_EXTENDEDPRICE ) {
(9,3) 0.01, 0.0098536156234831;
(9,7) 0.0064, 0.006290527565180964;
(9,1) 0.01005, 0.009874827613721748;
(9,4) 0.0096, 0.009909440185119923;
(9,5) 0.01015, 0.009848032435882944;
(9,8) 0.0041, 0.004586858413846757;
(9,0) 0.0102, 0.01003950122681845;
(9,2) 0.00975, 0.00978272347046659;
(9,11) 0.001, 0.0006810205533649403;
(9,6) 0.0075, 0.008039978655353783;
(9,9) 0.0031, 0.003184618888349547;
(9,10) 0.0021, 0.0018588553684112535;
(11,3) 0.00985, 0.009630602969632087;
(11,7) 0.00665, 0.006148154452785775;
(11,1) 0.0094, 0.009651338196277653;
(11,4) 0.0089, 0.009685167798176728;
(11,5) 0.0108, 0.009625140801521388;
(11,8) 0.0046, 0.004483042310275353;
(11,0) 0.0097, 0.009812283810651044;
(11,2) 0.0087, 0.00956132130674451;
(11,11) 0.00095, 0.0006656075244864983;
(11,6) 0.00845, 0.007858006237158302;
(11,9) 0.00255, 0.0031125461303685774;
(11,10) 0.0015, 0.0018167884619220821;
(4,3) 0.0099, 0.009929910432278956;
(4,7) 0.00645, 0.0063392332550917955;
(4,1) 0.00995, 0.009951286663253296;
(4,4) 0.0107, 0.009986159227071129;
(4,5) 0.00925, 0.009924289342970563;
(4,8) 0.005, 0.004622367327397616;
(4,0) 0.0096, 0.010117238627825173;
(4,2) 0.01025, 0.009858465379781765;
(4,11) 0.00065, 0.0006862958727034557;
(4,6) 0.00815, 0.00810222589418109;
(4,9) 0.00315, 0.003209276276855355;
(4,10) 0.00155, 0.0018732517005898039;
(10,3) 0.01025, 0.009548437385713052;
(10,7) 0.00595, 0.006095706467893263;
(10,1) 0.0091, 0.009569000392315927;
(10,4) 0.00835, 0.009602543071634228;
(10,5) 0.00945, 0.009543033400049205;
(10,8) 0.00495, 0.00444479316971321;
(10,0) 0.01015, 0.00972856791387668;
(10,2) 0.0095, 0.009479744196716515;
(10,11) 0.0006, 0.0006599312449713742;
(10,6) 0.0085, 0.00779096576212356;
(10,9) 0.0032, 0.0030859873394995644;
(10,10) 0.00135, 0.0018012896554934204;
(5,3) 0.00875, 0.009648216624886128;
(5,7) 0.0069, 0.006159392641749064;
(5,1) 0.0097, 0.009668980444048434;
(5,4) 0.0099, 0.00970286723098099;
(5,5) 0.0091, 0.009642748472295182;
(5,8) 0.0043, 0.004491240050801588;
(5,0) 0.01015, 0.009830219297953973;
(5,2) 0.009, 0.009578798981308473;
(5,11) 0.00075, 0.0006668256986880689;
(5,6) 0.00845, 0.007872371981993365;
(5,9) 0.0031, 0.0031182327164885728;
(5,10) 0.0021, 0.0018201058588061627;
(3,3) 0.0098, 0.009859485733664032;
(3,7) 0.00635, 0.006294274514758393;
(3,1) 0.0091, 0.009880715344872297;
(3,4) 0.0099, 0.009915340217702092;
(3,5) 0.00975, 0.009853900551237126;
(3,8) 0.004, 0.004589590994022169;
(3,0) 0.01085, 0.010045476397874845;
(3,2) 0.01025, 0.009788546702218912;
(3,11) 0.0006, 0.0006814288279062963;
(3,6) 0.0083, 0.008044761917427472;
(3,9) 0.0035, 0.003186512976348004;
(3,10) 0.0016, 0.001859965821968362;
(7,3) 0.00945, 0.009865356841258336;
(7,7) 0.0084, 0.006298007500548577;
(7,1) 0.0106, 0.009886586784937729;
(7,4) 0.0103, 0.009921239585342013;
(7,5) 0.0093, 0.009859768999062431;
(7,8) 0.00405, 0.004592322576784207;
(7,0) 0.0102, 0.010051460213180485;
(7,2) 0.0088, 0.009794382900345105;
(7,11) 0.00065, 0.0006818341102075285;
(7,6) 0.0075, 0.008049555818577157;
(7,9) 0.00325, 0.003188411386471085;
(7,10) 0.00155, 0.0018610732832853468;
(2,3) 0.01125, 0.009689281463404904;
(2,7) 0.0055, 0.006185628270684691;
(2,1) 0.00945, 0.009710152005798297;
(2,4) 0.0099, 0.009744181422843426;
(2,5) 0.00935, 0.009683804999035834;
(2,8) 0.00515, 0.004510357805424599;
(2,0) 0.0098, 0.009872078077518968;
(2,2) 0.00865, 0.009619587203851346;
(2,11) 0.00055, 0.0006696663319790676;
(2,6) 0.0087, 0.007905890390919549;
(2,9) 0.0029, 0.0031315112807452673;
(2,10) 0.00135, 0.001827860747794054;
(1,3) 0.0112, 0.010182259340776253;
(1,7) 0.00735, 0.006500331806182633;
(1,1) 0.0093, 0.010204191795942522;
(1,4) 0.0101, 0.010239950395308168;
(1,5) 0.01145, 0.010176489304403912;
(1,8) 0.00495, 0.0047398400148947065;
(1,0) 0.00965, 0.01037435650213779;
(1,2) 0.0099, 0.010109009635013199;
(1,11) 0.0005, 0.0007037383053281822;
(1,6) 0.0069, 0.008308143215261755;
(1,9) 0.0034, 0.0032908347685003557;
(1,10) 0.00205, 0.0019208549162505236;
(0,3) 0.00895, 0.009577789931444454;
(0,7) 0.0068, 0.0061144339014156624;
(0,1) 0.01085, 0.009598395826822441;
(0,4) 0.0103, 0.009632040242304955;
(0,5) 0.0096, 0.009572359680561743;
(0,8) 0.0045, 0.004458455738119144;
(0,0) 0.00895, 0.009758473359088762;
(0,2) 0.00885, 0.009508881301158994;
(0,11) 0.00125, 0.0006619549967085359;
(0,6) 0.00695, 0.007814918976786865;
(0,9) 0.0029, 0.003095473073163596;
(0,10) 0.0017, 0.0018068229724248449;
(6,3) 0.0096, 0.009877093404437825;
(6,7) 0.0058, 0.00630551802325968;
(6,1) 0.0104, 0.009898350943220582;
(6,4) 0.0111, 0.009933038320621854;
(6,5) 0.00945, 0.009871498912819422;
(6,8) 0.0041, 0.004597786074779405;
(6,0) 0.0097, 0.010063422524253768;
(6,2) 0.01035, 0.009806025706667375;
(6,11) 0.00085, 0.000682644009867743;
(6,6) 0.008, 0.008059129657089282;
(6,9) 0.0031, 0.0031922058794193724;
(6,10) 0.0017, 0.0018632865435636915;
(8,3) 0.0104, 0.009712762236599752;
(8,7) 0.00655, 0.006200607757216286;
(8,1) 0.01015, 0.009733673007999256;
(8,4) 0.00885, 0.009767796514372727;
(8,5) 0.0094, 0.009707266488905438;
(8,8) 0.00425, 0.004521291450837495;
(8,0) 0.0101, 0.009895994055416288;
(8,2) 0.0092, 0.009642889772523257;
(8,11) 0.00085, 0.0006712867962417464;
(8,6) 0.0084, 0.007925046712193046;
(8,9) 0.00255, 0.003139100599112967;
(8,10) 0.00205, 0.0018322846085817447;
}
probability ( C_ACCTBAL_S_ACCTBAL | C_ACCTBAL, S_ACCTBAL ) {
(1,7) 0.008, 0.007398239530541478;
(1,5) 0.004, 0.005857562016537744;
(1,6) 0.0, 0.005858628967724727;
(1,0) 0.016, 0.0077044545212056545;
(1,2) 0.008, 0.00678154174446519;
(1,8) 0.004, 0.006782608695652174;
(1,9) 0.008, 0.004623099493198187;
(1,4) 0.008, 0.007089890637503335;
(1,11) 0.008, 0.008323286209655908;
(1,1) 0.008, 0.005239797279274473;
(1,3) 0.008, 0.00678154174446519;
(1,10) 0.004, 0.004624166444385169;
(9,7) 0.004, 0.008372365964257136;
(9,5) 0.004, 0.006627900773539611;
(9,6) 0.008, 0.006626833822352627;
(9,0) 0.008, 0.008720192051213656;
(9,2) 0.008, 0.007673512936783142;
(9,8) 0.0, 0.007675646839157109;
(9,9) 0.004, 0.005232328620965591;
(9,4) 0.012, 0.008021339023739664;
(9,11) 0.016, 0.0094158442251267;
(9,1) 0.012, 0.0059279807948786345;
(9,3) 0.008, 0.007673512936783142;
(9,10) 0.012, 0.005230194718591624;
(4,7) 0.016, 0.009316617764737264;
(4,5) 0.012, 0.00737583355561483;
(4,6) 0.008, 0.007376900506801814;
(4,0) 0.0, 0.009709255801547079;
(4,2) 0.016, 0.008539877300613497;
(4,8) 0.004, 0.008543078154174447;
(4,9) 0.012, 0.005822352627367298;
(4,4) 0.004, 0.00893144838623633;
(4,11) 0.004, 0.010484929314483863;
(4,1) 0.008, 0.006600160042678048;
(4,3) 0.008, 0.008542011202987464;
(4,10) 0.004, 0.005824486529741264;
(11,7) 0.008, 0.007987196585756202;
(11,5) 0.004, 0.0063238196852494;
(11,6) 0.004, 0.0063238196852494;
(11,0) 0.012, 0.008319018404907976;
(11,2) 0.008, 0.007321419045078687;
(11,8) 0.012, 0.007320352093891705;
(11,9) 0.008, 0.004991197652707388;
(11,4) 0.008, 0.0076543078154174445;
(11,11) 0.008, 0.008985862896772473;
(11,1) 0.0, 0.005659109095758869;
(11,3) 0.012, 0.007320352093891705;
(11,10) 0.008, 0.004991197652707388;
(8,7) 0.004, 0.007245665510802881;
(8,5) 0.0, 0.005736996532408643;
(8,6) 0.004, 0.005735929581221659;
(8,0) 0.012, 0.007545478794345159;
(8,2) 0.012, 0.006639637236596426;
(8,8) 0.008, 0.0066407041877834085;
(8,9) 0.004, 0.004528140837556682;
(8,4) 0.0, 0.00694478527607362;
(8,11) 0.016, 0.008148306214990663;
(8,1) 0.004, 0.00513203520938917;
(8,3) 0.008, 0.0066407041877834085;
(8,10) 0.004, 0.004528140837556682;
(10,7) 0.008, 0.007756735129367831;
(10,5) 0.012, 0.006139237129901307;
(10,6) 0.008, 0.00614030408108829;
(10,0) 0.008, 0.00808002133902374;
(10,2) 0.004, 0.007111229661242998;
(10,8) 0.008, 0.007110162710056015;
(10,9) 0.004, 0.0048482261936516405;
(10,4) 0.004, 0.007434515870898906;
(10,11) 0.008, 0.008726593758335555;
(10,1) 0.004, 0.005494798612963457;
(10,3) 0.008, 0.007110162710056015;
(10,10) 0.004, 0.0048482261936516405;
(0,7) 0.008, 0.008217658042144572;
(0,5) 0.0, 0.00650733528941051;
(0,6) 0.008, 0.006505201387036543;
(0,0) 0.0, 0.008562283275540143;
(0,2) 0.016, 0.007530541477727394;
(0,8) 0.02, 0.007529474526540411;
(0,9) 0.0, 0.005137369965324086;
(0,4) 0.02, 0.007871965857562016;
(0,11) 0.004, 0.009246198986396373;
(0,1) 0.004, 0.005821285676180315;
(0,3) 0.0, 0.007534809282475327;
(0,10) 0.008, 0.00513523606295012;
(5,7) 0.008, 0.008524939983995733;
(5,5) 0.016, 0.006746332355294745;
(5,6) 0.016, 0.006746332355294745;
(5,0) 0.012, 0.008879167778074152;
(5,2) 0.0, 0.00781648439583889;
(5,8) 0.004, 0.007815417444651907;
(5,9) 0.004, 0.005328354227794078;
(5,4) 0.0, 0.008171779141104294;
(5,11) 0.004, 0.009591891170978927;
(5,1) 0.0, 0.00604001066951187;
(5,3) 0.012, 0.00781328354227794;
(5,10) 0.0, 0.005329421178981062;
(6,7) 0.008, 0.007321419045078687;
(6,5) 0.004, 0.005796745798879701;
(6,6) 0.008, 0.005795678847692718;
(6,0) 0.008, 0.007626567084555881;
(6,2) 0.004, 0.006712189917311283;
(6,8) 0.004, 0.006712189917311283;
(6,9) 0.004, 0.004576153640970926;
(6,4) 0.004, 0.007017337956788477;
(6,11) 0.02, 0.00823366230994932;
(6,1) 0.004, 0.005186449719925313;
(6,3) 0.008, 0.006711122966124299;
(6,10) 0.008, 0.0045750866897839425;
(7,7) 0.008, 0.008089623899706588;
(7,5) 0.0, 0.006405974926647106;
(7,6) 0.004, 0.006404907975460123;
(7,0) 0.004, 0.008427847425980262;
(7,2) 0.004, 0.007416377700720192;
(7,8) 0.004, 0.007416377700720192;
(7,9) 0.0, 0.005057348626300346;
(7,4) 0.02, 0.007749266471058949;
(7,11) 0.0, 0.009103227527340624;
(7,1) 0.008, 0.00572952787409976;
(7,3) 0.008, 0.0074153107495332085;
(7,10) 0.0, 0.005057348626300346;
(2,7) 0.008, 0.007705521472392638;
(2,5) 0.016, 0.006097626033608962;
(2,6) 0.004, 0.006100826887169912;
(2,0) 0.012, 0.008025606828487597;
(2,2) 0.004, 0.007064283809015737;
(2,8) 0.012, 0.007062149906641771;
(2,9) 0.004, 0.0048162176580421445;
(2,4) 0.008, 0.007384369165110696;
(2,11) 0.008, 0.008668978394238464;
(2,1) 0.0, 0.005459589223793012;
(2,3) 0.008, 0.007063216857828754;
(2,10) 0.004, 0.0048162176580421445;
(3,7) 0.008, 0.008064017071218992;
(3,5) 0.004, 0.006384635902907442;
(3,6) 0.004, 0.006384635902907442;
(3,0) 0.008, 0.008400106695118698;
(3,2) 0.004, 0.007392904774606562;
(3,8) 0.008, 0.007391837823419578;
(3,9) 0.008, 0.005039210456121632;
(3,4) 0.004, 0.007728994398506268;
(3,11) 0.012, 0.009071218991731128;
(3,1) 0.016, 0.0057092558015470795;
(3,3) 0.0, 0.007393971725793545;
(3,10) 0.004, 0.005040277407308616;
}
probability ( C_ACCTBAL_O_ORDERDATE | C_ACCTBAL, O_ORDERDATE ) {
(1,1996) 0.0112, 0.011619609411806536;
(1,1993) 0.008266666666666667, 0.011471715690196184;
(1,1995) 0.012266666666666667, 0.011531208832235526;
(1,1994) 0.0136, 0.01195659262024765;
(1,1992) 0.012533333333333334, 0.011714111487417442;
(1,1998) 0.008, 0.007018178262531445;
(1,1997) 0.0112, 0.011755250362231882;
(9,1996) 0.0112, 0.013147486599642657;
(9,1993) 0.014933333333333333, 0.012979958576673155;
(9,1995) 0.014133333333333333, 0.013047416375547792;
(9,1994) 0.012533333333333334, 0.013528815879534565;
(9,1992) 0.010133333333333333, 0.013254483230663928;
(9,1998) 0.0088, 0.007940990426411372;
(9,1997) 0.015466666666666667, 0.01330084891152653;
(4,1996) 0.016, 0.014635028489648613;
(4,1993) 0.0176, 0.014448612851898272;
(4,1995) 0.016266666666666665, 0.014523715299074641;
(4,1994) 0.012266666666666667, 0.01505964425718019;
(4,1992) 0.010666666666666666, 0.014754242335351164;
(4,1998) 0.009866666666666666, 0.008839510386943653;
(4,1997) 0.0144, 0.01480591304657013;
(11,1996) 0.010133333333333333, 0.01254440562859454;
(11,1993) 0.0144, 0.012384543587829009;
(11,1995) 0.013333333333333334, 0.012448915082179969;
(11,1994) 0.013066666666666667, 0.012908198440847311;
(11,1992) 0.011733333333333333, 0.012646424349093754;
(11,1998) 0.008266666666666667, 0.007576728268309377;
(11,1997) 0.012266666666666667, 0.01269078464314604;
(8,1996) 0.0104, 0.011378386979208335;
(8,1993) 0.012533333333333334, 0.011233430224805994;
(8,1995) 0.010133333333333333, 0.011291856671733469;
(8,1994) 0.015733333333333332, 0.01170829444340738;
(8,1992) 0.009333333333333334, 0.011470990337520111;
(8,1998) 0.005333333333333333, 0.006872538823257509;
(8,1997) 0.012, 0.011511169186733868;
(10,1996) 0.010933333333333333, 0.012182518644941643;
(10,1993) 0.013866666666666666, 0.012027300283563117;
(10,1995) 0.0112, 0.0120898583962239;
(10,1994) 0.012533333333333334, 0.012535850733797345;
(10,1992) 0.012266666666666667, 0.012281600398232841;
(10,1998) 0.006666666666666667, 0.0073582051076917605;
(10,1997) 0.013333333333333334, 0.012324666435549393;
(0,1996) 0.014666666666666666, 0.012906150386232522;
(0,1993) 0.0112, 0.01274188645030534;
(0,1995) 0.0152, 0.012807978879436785;
(0,1994) 0.011466666666666667, 0.013280603038303244;
(0,1992) 0.012266666666666667, 0.013011219854751682;
(0,1998) 0.0064, 0.007795343875836689;
(0,1997) 0.0144, 0.013056817515133736;
(5,1996) 0.016, 0.013388602362729672;
(5,1993) 0.0136, 0.01321816581775514;
(5,1995) 0.0112, 0.01328690365076402;
(5,1994) 0.013333333333333334, 0.013777035832066633;
(5,1992) 0.012533333333333334, 0.013497625714463496;
(5,1998) 0.008533333333333334, 0.00808670808999351;
(5,1997) 0.0136, 0.013544958532227525;
(6,1996) 0.012266666666666667, 0.011498959083353334;
(6,1993) 0.009866666666666666, 0.011352587180102581;
(6,1995) 0.012533333333333334, 0.011411497195480768;
(6,1994) 0.0104, 0.011832557312639448;
(6,1992) 0.013866666666666666, 0.011592472688160573;
(6,1998) 0.0064, 0.006945365654195223;
(6,1997) 0.010933333333333333, 0.01163322755273474;
(7,1996) 0.013866666666666666, 0.01270513524805106;
(7,1993) 0.015733333333333332, 0.012543289154377451;
(7,1995) 0.012533333333333334, 0.012608542450020889;
(7,1994) 0.013866666666666666, 0.013073671297901277;
(7,1992) 0.011733333333333333, 0.01280856200609794;
(7,1998) 0.0061333333333333335, 0.0076739255269029395;
(7,1997) 0.0104, 0.01285354098331511;
(2,1996) 0.0136, 0.012102032943100706;
(2,1993) 0.010933333333333333, 0.011947987946345237;
(2,1995) 0.011733333333333333, 0.012010041156653066;
(2,1994) 0.014133333333333333, 0.01245306097051477;
(2,1992) 0.0104, 0.012200581348835969;
(2,1998) 0.0096, 0.007309556699289759;
(2,1997) 0.009866666666666666, 0.012243405601927163;
(3,1996) 0.013333333333333334, 0.012664942176235811;
(3,1993) 0.0128, 0.012503672097922611;
(3,1995) 0.010666666666666666, 0.01256869072064144;
(3,1994) 0.013866666666666666, 0.013032297750162226;
(3,1992) 0.013333333333333334, 0.012767984924042419;
(3,1998) 0.007466666666666667, 0.007649604878352312;
(3,1997) 0.012533333333333334, 0.012812807452643182;
}
probability ( L_COMMITDATE_O_ORDERDATE | L_COMMITDATE, O_ORDERDATE ) {
(1996,1996) 0.022906666666666665, 0.022616499345031883;
(1996,1993) 0.02184, 0.022328498139269938;
(1996,1995) 0.02312, 0.022444492970452184;
(1996,1994) 0.025226666666666668, 0.023272502820463375;
(1996,1992) 0.0224, 0.02280050801587882;
(1996,1998) 0.013253333333333334, 0.013660305474469543;
(1996,1997) 0.023386666666666667, 0.022880503760248423;
(1997,1996) 0.023306666666666667, 0.023150858817245056;
(1997,1993) 0.022986666666666666, 0.022856047893573775;
(1997,1995) 0.022186666666666667, 0.022974797358849382;
(1997,1994) 0.02312, 0.023822378675745343;
(1997,1992) 0.022133333333333335, 0.02333921940212826;
(1997,1998) 0.014746666666666667, 0.013983048760215175;
(1997,1997) 0.023653333333333332, 0.02342110180930786;
(1994,1996) 0.02336, 0.02345463280780731;
(1994,1993) 0.024106666666666665, 0.02315594642338646;
(1994,1995) 0.0232, 0.023276254690613455;
(1994,1994) 0.023466666666666667, 0.024134961998550426;
(1994,1992) 0.0236, 0.023645455452193976;
(1994,1998) 0.013813333333333334, 0.014166533811205164;
(1994,1997) 0.024106666666666665, 0.023728419144130666;
(1993,1996) 0.02248, 0.02207812982775779;
(1993,1993) 0.021733333333333334, 0.02179698231475263;
(1993,1995) 0.022773333333333333, 0.021910217369621447;
(1993,1994) 0.023626666666666667, 0.022718525069431054;
(1993,1992) 0.02328, 0.022257749702438344;
(1993,1998) 0.012773333333333333, 0.013335133287673965;
(1993,1997) 0.022986666666666666, 0.022335849563465415;
(1995,1996) 0.022373333333333332, 0.022540308666192343;
(1995,1993) 0.021973333333333334, 0.02225327331121292;
(1995,1995) 0.022373333333333332, 0.022368883185162034;
(1995,1994) 0.021786666666666666, 0.023194121378558273;
(1995,1992) 0.02304, 0.0227236896315555;
(1995,1998) 0.013333333333333334, 0.013614283846114631;
(1995,1997) 0.022, 0.022803429328829457;
(1992,1996) 0.02072, 0.019559721876821666;
(1992,1993) 0.01864, 0.019310653660396263;
(1992,1995) 0.0188, 0.019410977309953965;
(1992,1994) 0.019866666666666668, 0.020127081103006202;
(1992,1992) 0.019973333333333333, 0.019718862594117034;
(1992,1998) 0.012506666666666666, 0.01181401671664816;
(1992,1997) 0.020133333333333333, 0.019788050987771713;
(1998,1996) 0.015626666666666667, 0.017373181992477286;
(1998,1993) 0.017573333333333333, 0.017151931590741343;
(1998,1995) 0.017173333333333332, 0.017241043782014197;
(1998,1994) 0.018053333333333334, 0.01787709562091199;
(1998,1992) 0.017573333333333333, 0.017514515201688067;
(1998,1998) 0.01064, 0.01049334477034003;
(1998,1997) 0.016266666666666665, 0.0175759787395798;
}
